<?xml version="1.0"?>
<opencv_storage>
<cascade>
  <stageType>BOOST</stageType>
  <featureType>LBP</featureType>
  <height>8</height>
  <width>25</width>
  <stageParams>
    <boostType>GAB</boostType>
    <minHitRate>9.9500000476837158e-01</minHitRate>
    <maxFalseAlarm>5.0000000000000000e-01</maxFalseAlarm>
    <weightTrimRate>9.4999999999999996e-01</weightTrimRate>
    <maxDepth>1</maxDepth>
    <maxWeakCount>100</maxWeakCount></stageParams>
  <featureParams>
    <maxCatCount>256</maxCatCount>
    <featSize>1</featSize></featureParams>
  <stageNum>20</stageNum>
  <stages>
    <!-- stage 0 -->
    <_>
      <maxWeakCount>6</maxWeakCount>
      <stageThreshold>-1.5467391014099121e+00</stageThreshold>
      <weakClassifiers>
        <_>
          <internalNodes>
            0 -1 94 -775751950 -570893886 -251407437 -244100672
            -2138387969 -275019601 1125112831 -1051953</internalNodes>
          <leafValues>
            -7.8246206045150757e-01 1.6810344159603119e-01</leafValues></_>
        <_>
          <internalNodes>
            0 -1 100 -1097460431 2132422028 169433173 -6424301
            -1998864449 -1693706080 -1612144705 -3638019</internalNodes>
          <leafValues>
            -5.8723384141921997e-01 3.9991134405136108e-01</leafValues></_>
        <_>
          <internalNodes>
            0 -1 54 -536880482 1460621178 849787578 1365832543
            -918795128 508389408 -492111142 -2097153</internalNodes>
          <leafValues>
            -4.9435794353485107e-01 4.8492708802223206e-01</leafValues></_>
        <_>
          <internalNodes>
            0 -1 80 1128398276 -511386748 -768396565 -639913782
            1343333370 1125096329 856929274 -201613280</internalNodes>
          <leafValues>
            -5.7385057210922241e-01 4.1591256856918335e-01</leafValues></_>
        <_>
          <internalNodes>
            0 -1 76 1398282545 2002082065 697505107 1462899737
            -527844962 -1979152126 604121274 145417958</internalNodes>
          <leafValues>
            -4.8053118586540222e-01 5.1729780435562134e-01</leafValues></_>
        <_>
          <internalNodes>
            0 -1 97 -11929010 -1608856950 -1030958693 1387303625
            -1865422353 -939079518 -268243923 -1340869645</internalNodes>
          <leafValues>
            -5.6601411104202271e-01 4.0567386150360107e-01</leafValues></_></weakClassifiers></_>
    <!-- stage 1 -->
    <_>
      <maxWeakCount>5</maxWeakCount>
      <stageThreshold>-1.4423711299896240e+00</stageThreshold>
      <weakClassifiers>
        <_>
          <internalNodes>
            0 -1 68 -83103030 -639640931 33620170 1930158300 -628694838
            1078657096 -72355381 -673185825</internalNodes>
          <leafValues>
            -7.9699909687042236e-01 1.0251450538635254e-01</leafValues></_>
        <_>
          <internalNodes>
            0 -1 94 -792399118 -774319638 -901688495 -774643134
            -2147431989 -1566998324 67881723 -204475445</internalNodes>
          <leafValues>
            -6.4433676004409790e-01 4.0804177522659302e-01</leafValues></_>
        <_>
          <internalNodes>
            0 -1 85 -259790198 -741620086 1912664770 1359442566
            -620569702 311068802 1535372191 1159433163</internalNodes>
          <leafValues>
            -7.2677487134933472e-01 3.1997603178024292e-01</leafValues></_>
        <_>
          <internalNodes>
            0 -1 96 -1317543272 2010843138 1929476563 -117416570
            -1341781846 -1174335320 605616603 2071687578</internalNodes>
          <leafValues>
            -5.7908773422241211e-01 4.2550870776176453e-01</leafValues></_>
        <_>
          <internalNodes>
            0 -1 122 -1127566664 -648073194 268436700 423592413
            -1186428276 -1450565504 706742701 1238090689</internalNodes>
          <leafValues>
            -5.9928268194198608e-01 3.9444708824157715e-01</leafValues></_></weakClassifiers></_>
    <!-- stage 2 -->
    <_>
      <maxWeakCount>7</maxWeakCount>
      <stageThreshold>-1.9364030361175537e+00</stageThreshold>
      <weakClassifiers>
        <_>
          <internalNodes>
            0 -1 6 -548416513 -3157375 -2069343265 -6303401 -878449921
            -16056064 -1309740549 -3148961</internalNodes>
          <leafValues>
            -6.6935765743255615e-01 4.5898005366325378e-01</leafValues></_>
        <_>
          <internalNodes>
            0 -1 64 -1064834358 -683970427 -570378102 1972368015
            -1877215008 1174881089 -832910130 2002779023</internalNodes>
          <leafValues>
            -6.9819736480712891e-01 2.6208209991455078e-01</leafValues></_>
        <_>
          <internalNodes>
            0 -1 48 266331806 1005147614 -745035894 1943345918
            2036895616 990677065 -1400329990 1979436250</internalNodes>
          <leafValues>
            -6.6298729181289673e-01 3.2552021741867065e-01</leafValues></_>
        <_>
          <internalNodes>
            0 -1 79 358579935 -1614839813 -9469957 -9764952 854556667
            -578880082 2139093944 -94176312</internalNodes>
          <leafValues>
            -4.3144437670707703e-01 5.3880196809768677e-01</leafValues></_>
        <_>
          <internalNodes>
            0 -1 107 -144194878 -607935858 1103432771 1363625221
            -297535250 -444529656 1342624491 1447808490</internalNodes>
          <leafValues>
            -5.3594774007797241e-01 4.3831494450569153e-01</leafValues></_>
        <_>
          <internalNodes>
            0 -1 108 658866139 1070986774 -142422661 -39846659 71660712
            -1152928660 553711614 -653888846</internalNodes>
          <leafValues>
            -4.1054636240005493e-01 5.4621595144271851e-01</leafValues></_>
        <_>
          <internalNodes>
            0 -1 88 -1683543043 -10923378 297818621 903420020
            -1719653968 -1735884136 847290813 -1426268495</internalNodes>
          <leafValues>
            -4.7243118286132812e-01 4.5882424712181091e-01</leafValues></_></weakClassifiers></_>
    <!-- stage 3 -->
    <_>
      <maxWeakCount>8</maxWeakCount>
      <stageThreshold>-1.7487170696258545e+00</stageThreshold>
      <weakClassifiers>
        <_>
          <internalNodes>
            0 -1 114 -10504363 -1512100939 -102009771 -1744842273
            -1883242517 -1416628033 -608442115 -353379329</internalNodes>
          <leafValues>
            -7.0588237047195435e-01 9.6938773989677429e-02</leafValues></_>
        <_>
          <internalNodes>
            0 -1 74 16237255 -956313053 1594869335 -328209850 -478152989
            2077210007 -514851201 1800360586</internalNodes>
          <leafValues>
            -5.5615937709808350e-01 2.8802984952926636e-01</leafValues></_>
        <_>
          <internalNodes>
            0 -1 51 467659084 1373629180 -1062143266 1946118301
            659799824 1231286783 -1104163382 2075838940</internalNodes>
          <leafValues>
            -6.2121313810348511e-01 2.7103871107101440e-01</leafValues></_>
        <_>
          <internalNodes>
            0 -1 73 -1491335597 -1947392291 -1365568515 -1174463651
            -37995523 -1359376451 1071824317 -1359594499</internalNodes>
          <leafValues>
            -4.2657738924026489e-01 4.4048565626144409e-01</leafValues></_>
        <_>
          <internalNodes>
            0 -1 103 -384923574 -612412417 -4590882 -170297908
            -971887998 -879927837 -431237650 -552644643</internalNodes>
          <leafValues>
            -4.2447394132614136e-01 4.4497379660606384e-01</leafValues></_>
        <_>
          <internalNodes>
            0 -1 64 1619257866 -965129323 -565593942 1687025066
            1375993056 1443287619 -692154610 1461711758</internalNodes>
          <leafValues>
            -7.5024741888046265e-01 2.5533530116081238e-01</leafValues></_>
        <_>
          <internalNodes>
            0 -1 3 -1499020709 1178918999 -620697345 805210339
            1745567095 2142835029 -853282955 -1342549133</internalNodes>
          <leafValues>
            -4.9385648965835571e-01 3.4747651219367981e-01</leafValues></_>
        <_>
          <internalNodes>
            0 -1 107 1963184258 -1014111922 1338740161 1705493391
            -119345984 -774761704 -746137681 1336544650</internalNodes>
          <leafValues>
            -5.6021422147750854e-01 3.3185845613479614e-01</leafValues></_></weakClassifiers></_>
    <!-- stage 4 -->
    <_>
      <maxWeakCount>8</maxWeakCount>
      <stageThreshold>-1.5817173719406128e+00</stageThreshold>
      <weakClassifiers>
        <_>
          <internalNodes>
            0 -1 71 -201370881 -683987825 -1794692464 1398798783
            -626878232 1427124640 1867299834 -69533697</internalNodes>
          <leafValues>
            -7.4679213762283325e-01 4.7817047685384750e-02</leafValues></_>
        <_>
          <internalNodes>
            0 -1 68 -76815730 -790667608 160254025 1646912254 -740826936
            1092309252 2054156298 -144703749</internalNodes>
          <leafValues>
            -5.9939271211624146e-01 2.6386791467666626e-01</leafValues></_>
        <_>
          <internalNodes>
            0 -1 80 -169476369 -3313681 851407466 -639650049 -707395589
            1129118621 1944041441 -33562482</internalNodes>
          <leafValues>
            -3.7018704414367676e-01 5.2121531963348389e-01</leafValues></_>
        <_>
          <internalNodes>
            0 -1 54 -547365938 1467969114 1928073386 326783834
            -373765120 1914395172 -471876870 -2656391</internalNodes>
          <leafValues>
            -4.9241647124290466e-01 3.6819142103195190e-01</leafValues></_>
        <_>
          <internalNodes>
            0 -1 125 1171616968 2011164074 1426768805 394020086
            1371853224 -172576383 1977810891 123393995</internalNodes>
          <leafValues>
            -5.8516597747802734e-01 3.4853357076644897e-01</leafValues></_>
        <_>
          <internalNodes>
            0 -1 42 -791952186 1442783373 150994956 2044651262
            1776968148 607143698 1241711566 -205590017</internalNodes>
          <leafValues>
            -4.4002211093902588e-01 4.2282345890998840e-01</leafValues></_>
        <_>
          <internalNodes>
            0 -1 84 -403751011 73370079 1350259485 -1811950209 -68440488
            -514618097 1810854196 -1174683731</internalNodes>
          <leafValues>
            -4.4456440210342407e-01 4.3859449028968811e-01</leafValues></_>
        <_>
          <internalNodes>
            0 -1 90 28005199 -1460249152 2005914378 -560014472
            1351078624 -750913069 -1817184513 -202714912</internalNodes>
          <leafValues>
            -4.9209311604499817e-01 4.1274142265319824e-01</leafValues></_></weakClassifiers></_>
    <!-- stage 5 -->
    <_>
      <maxWeakCount>8</maxWeakCount>
      <stageThreshold>-1.3474197387695312e+00</stageThreshold>
      <weakClassifiers>
        <_>
          <internalNodes>
            0 -1 94 -70254593 -134360110 -942147589 -134229047
            -1047540801 -69281877 -1693476977 -1048881</internalNodes>
          <leafValues>
            -6.5368270874023438e-01 3.0672270059585571e-01</leafValues></_>
        <_>
          <internalNodes>
            0 -1 100 -1228978508 -49399668 168326705 -2761929
            -1377617985 -1144253208 -1141498945 -3506219</internalNodes>
          <leafValues>
            -5.1777750253677368e-01 2.8812345862388611e-01</leafValues></_>
        <_>
          <internalNodes>
            0 -1 61 -225458134 182956593 -1559258190 393917314
            -212284979 272453701 -1175592682 1205833951</internalNodes>
          <leafValues>
            -5.5215406417846680e-01 2.8860130906105042e-01</leafValues></_>
        <_>
          <internalNodes>
            0 -1 37 -2146329605 -1080422481 805730303 -8569044 240558047
            -564827414 133953431 -538977084</internalNodes>
          <leafValues>
            -3.5643607378005981e-01 4.7747281193733215e-01</leafValues></_>
        <_>
          <internalNodes>
            0 -1 81 2071968310 1264789440 1367901751 964475611
            -1310126582 2067405004 -550642385 2084110334</internalNodes>
          <leafValues>
            -4.9898728728294373e-01 3.5799378156661987e-01</leafValues></_>
        <_>
          <internalNodes>
            0 -1 116 -169258880 -84082552 -1358727898 2105491533
            -750358021 -280304123 1291905931 -582822913</internalNodes>
          <leafValues>
            -5.0820344686508179e-01 3.5720476508140564e-01</leafValues></_>
        <_>
          <internalNodes>
            0 -1 111 2054140229 -1660586629 -2126292175 -367824871
            -862876301 193975006 -741700621 -1431703462</internalNodes>
          <leafValues>
            -3.9847883582115173e-01 4.2000812292098999e-01</leafValues></_>
        <_>
          <internalNodes>
            0 -1 98 -604258189 1610480736 -1146114089 1520434637
            -397484012 -547997535 1862711219 -576853045</internalNodes>
          <leafValues>
            -3.5149598121643066e-01 5.0683856010437012e-01</leafValues></_></weakClassifiers></_>
    <!-- stage 6 -->
    <_>
      <maxWeakCount>8</maxWeakCount>
      <stageThreshold>-1.1299836635589600e+00</stageThreshold>
      <weakClassifiers>
        <_>
          <internalNodes>
            0 -1 29 -1289037571 -73564161 -550242307 -6562097 -72622593
            -1074816537 -79954947 -105758456</internalNodes>
          <leafValues>
            -7.2118186950683594e-01 3.6789298057556152e-02</leafValues></_>
        <_>
          <internalNodes>
            0 -1 100 -2034878931 -342999620 255417525 -539135042
            -1142211649 -1077068564 1005894463 -1380941900</internalNodes>
          <leafValues>
            -5.7332825660705566e-01 2.4759189784526825e-01</leafValues></_>
        <_>
          <internalNodes>
            0 -1 2 -961613825 -2106873998 920051647 -268701306
            -818976009 938716963 -71860635 -16820412</internalNodes>
          <leafValues>
            -4.1682818531990051e-01 4.0030431747436523e-01</leafValues></_>
        <_>
          <internalNodes>
            0 -1 91 464195644 515832571 -1079541889 -16093088 402592225
            1591956471 1878928248 170552224</internalNodes>
          <leafValues>
            -7.2624778747558594e-01 2.2617825865745544e-01</leafValues></_>
        <_>
          <internalNodes>
            0 -1 60 1909228260 -1219428666 1678044101 -1354109460
            1868857045 2006228709 1264413623 1072966480</internalNodes>
          <leafValues>
            -6.2205380201339722e-01 2.6769104599952698e-01</leafValues></_>
        <_>
          <internalNodes>
            0 -1 115 -291076235 577474921 -404914575 617548287
            2141926053 -359749408 -322569036 -860328208</internalNodes>
          <leafValues>
            -4.9110567569732666e-01 3.3772549033164978e-01</leafValues></_>
        <_>
          <internalNodes>
            0 -1 23 1330534399 -1892286987 -429909224 1607237055
            -622117174 1528708884 -1612201258 -823370512</internalNodes>
          <leafValues>
            -4.1176861524581909e-01 4.2402884364128113e-01</leafValues></_>
        <_>
          <internalNodes>
            0 -1 43 -283770162 1524203377 1039039953 168821602
            -1660140468 -1164414373 -538297966 -1206193667</internalNodes>
          <leafValues>
            -5.1111543178558350e-01 3.6389434337615967e-01</leafValues></_></weakClassifiers></_>
    <!-- stage 7 -->
    <_>
      <maxWeakCount>8</maxWeakCount>
      <stageThreshold>-1.3267660140991211e+00</stageThreshold>
      <weakClassifiers>
        <_>
          <internalNodes>
            0 -1 40 -67256353 -539656272 -505479175 1541238749
            -2036945990 1610570227 783854335 -129</internalNodes>
          <leafValues>
            -6.7436492443084717e-01 7.4074074625968933e-02</leafValues></_>
        <_>
          <internalNodes>
            0 -1 97 -3425618 -264559990 -590353508 1366405858
            -1846542852 -1836582902 -250483651 1884402330</internalNodes>
          <leafValues>
            -6.5063625574111938e-01 1.7298768460750580e-01</leafValues></_>
        <_>
          <internalNodes>
            0 -1 137 -1618734968 1463180652 -1543163464 -147252163
            705081272 -1693345358 -1645236246 -137064734</internalNodes>
          <leafValues>
            -4.7681957483291626e-01 3.0258953571319580e-01</leafValues></_>
        <_>
          <internalNodes>
            0 -1 85 -238945590 -476324978 1174528614 1386210206
            1599594114 1652998538 163839966 1163368906</internalNodes>
          <leafValues>
            -6.3966542482376099e-01 2.7094581723213196e-01</leafValues></_>
        <_>
          <internalNodes>
            0 -1 82 -1076117588 -675631 1023673140 1837631492 -802648328
            -253558577 -710164820 -72413450</internalNodes>
          <leafValues>
            -4.6442565321922302e-01 3.2596811652183533e-01</leafValues></_>
        <_>
          <internalNodes>
            0 -1 46 830560735 893119999 -711158305 -271365136
            -1222943017 1714631124 -1264630471 1468155048</internalNodes>
          <leafValues>
            -4.2111089825630188e-01 3.7850663065910339e-01</leafValues></_>
        <_>
          <internalNodes>
            0 -1 65 -153961742 586019214 1376262196 -1043494534
            -101619237 441202900 212548236 -1413303569</internalNodes>
          <leafValues>
            -4.9541229009628296e-01 3.2367593050003052e-01</leafValues></_>
        <_>
          <internalNodes>
            0 -1 54 -562099574 395278866 306452392 852123482 -392279872
            395854456 -1010632062 2005890420</internalNodes>
          <leafValues>
            -7.6641428470611572e-01 2.0981328189373016e-01</leafValues></_></weakClassifiers></_>
    <!-- stage 8 -->
    <_>
      <maxWeakCount>8</maxWeakCount>
      <stageThreshold>-1.8057355880737305e+00</stageThreshold>
      <weakClassifiers>
        <_>
          <internalNodes>
            0 -1 52 -69733897 -749272931 -2054484677 -796521 -279997798
            -95944620 -1372421734 -336600337</internalNodes>
          <leafValues>
            -6.6763633489608765e-01 2.4727272987365723e-01</leafValues></_>
        <_>
          <internalNodes>
            0 -1 94 -202375445 -621219094 -502802633 -236330109
            -2146465341 -1365309221 21993197 -143920401</internalNodes>
          <leafValues>
            -4.4497981667518616e-01 4.3786403536796570e-01</leafValues></_>
        <_>
          <internalNodes>
            0 -1 135 -753949990 -174345662 -1636644887 -1223970909
            -67846210 -504303912 -105388289 -611859729</internalNodes>
          <leafValues>
            -3.0353614687919617e-01 5.4039144515991211e-01</leafValues></_>
        <_>
          <internalNodes>
            0 -1 70 1605295167 -672271246 -1329271822 -140315998
            -1882336802 -889326214 -551817300 -680606230</internalNodes>
          <leafValues>
            -3.3464407920837402e-01 4.9115663766860962e-01</leafValues></_>
        <_>
          <internalNodes>
            0 -1 36 -750320734 2110769116 -1859603489 936374973
            1537853828 1512128785 -893203774 843246446</internalNodes>
          <leafValues>
            -5.0785642862319946e-01 3.2189989089965820e-01</leafValues></_>
        <_>
          <internalNodes>
            0 -1 133 -589061886 -1498935256 1090898973 320524304
            -1466201228 228297738 1686622308 -924918151</internalNodes>
          <leafValues>
            -5.2306556701660156e-01 3.0878442525863647e-01</leafValues></_>
        <_>
          <internalNodes>
            0 -1 113 -1848205439 -1482220791 628882295 -134496435
            -1073760263 -1245773825 -920392200 -1319570740</internalNodes>
          <leafValues>
            -3.6924856901168823e-01 4.3875187635421753e-01</leafValues></_>
        <_>
          <internalNodes>
            0 -1 129 -486833952 -76273261 905388312 2005215630
            -1249958482 -1380665984 1529191903 -648309281</internalNodes>
          <leafValues>
            -3.7469902634620667e-01 4.6238744258880615e-01</leafValues></_></weakClassifiers></_>
    <!-- stage 9 -->
    <_>
      <maxWeakCount>9</maxWeakCount>
      <stageThreshold>-1.4433951377868652e+00</stageThreshold>
      <weakClassifiers>
        <_>
          <internalNodes>
            0 -1 6 -672145409 -9480741 -496649257 -134884005 -69206529
            -111403209 -1211116609 -1054721</internalNodes>
          <leafValues>
            -6.3490957021713257e-01 2.9716980457305908e-01</leafValues></_>
        <_>
          <internalNodes>
            0 -1 71 -472952069 -571003411 1493631888 1398775471
            -624453144 1371585448 1875164154 -207950154</internalNodes>
          <leafValues>
            -4.3371313810348511e-01 2.9069793224334717e-01</leafValues></_>
        <_>
          <internalNodes>
            0 -1 31 -2057633084 509868877 1390540148 30466909 1568146700
            1526016171 -583047980 1132527554</internalNodes>
          <leafValues>
            -6.6721528768539429e-01 1.9814261794090271e-01</leafValues></_>
        <_>
          <internalNodes>
            0 -1 118 1615872208 1876564624 -1975564969 534628990
            10386920 -1171619692 352873052 2032050186</internalNodes>
          <leafValues>
            -5.4945689439773560e-01 2.6382416486740112e-01</leafValues></_>
        <_>
          <internalNodes>
            0 -1 109 -1415599702 -120246054 941664906 -537065756
            -1413215598 -1152303627 -96951298 1161681812</internalNodes>
          <leafValues>
            -5.6968581676483154e-01 2.2144393622875214e-01</leafValues></_>
        <_>
          <internalNodes>
            0 -1 47 -1387267281 821030108 -978362556 -713036564
            1945304709 -1326710786 -604122097 -32779</internalNodes>
          <leafValues>
            -3.4114480018615723e-01 4.1680654883384705e-01</leafValues></_>
        <_>
          <internalNodes>
            0 -1 1 -1377603601 -71588913 -598218822 -660172066 635136596
            -377370583 -2090635788 -821723036</internalNodes>
          <leafValues>
            -4.1110700368881226e-01 3.5631006956100464e-01</leafValues></_>
        <_>
          <internalNodes>
            0 -1 66 -389899990 1880647918 255985066 -290471460
            1323471855 -1722756472 305798692 1903738783</internalNodes>
          <leafValues>
            -5.5727529525756836e-01 2.5264304876327515e-01</leafValues></_>
        <_>
          <internalNodes>
            0 -1 134 -2017484086 1908405706 -1869315207 2044568959
            -494946840 -364017718 861703083 1733587354</internalNodes>
          <leafValues>
            -4.6063363552093506e-01 3.0874755978584290e-01</leafValues></_></weakClassifiers></_>
    <!-- stage 10 -->
    <_>
      <maxWeakCount>10</maxWeakCount>
      <stageThreshold>-1.3244190216064453e+00</stageThreshold>
      <weakClassifiers>
        <_>
          <internalNodes>
            0 -1 32 -741149737 -204369005 1602475487 -536933652
            -30294017 -288358 -74846209 -148741</internalNodes>
          <leafValues>
            -6.3102728128433228e-01 2.4200913310050964e-01</leafValues></_>
        <_>
          <internalNodes>
            0 -1 87 -2368790 -729112837 -1342490096 1408797658
            -745548254 1478506472 -544250213 -671088657</internalNodes>
          <leafValues>
            -4.6212783455848694e-01 3.0725762248039246e-01</leafValues></_>
        <_>
          <internalNodes>
            0 -1 112 -553648779 -67698945 -111082 -473302149 -318781213
            -327288897 -109597238 -1964916753</internalNodes>
          <leafValues>
            -3.4176328778266907e-01 4.4083377718925476e-01</leafValues></_>
        <_>
          <internalNodes>
            0 -1 68 -213028136 -253765889 178362984 2076766942
            -539777336 -480287296 -75499060 -204551170</internalNodes>
          <leafValues>
            -3.9263674616813660e-01 3.5816323757171631e-01</leafValues></_>
        <_>
          <internalNodes>
            0 -1 93 -52658062 1421617023 -38505042 -11075809 -201050272
            -1197792975 2001972894 1326348414</internalNodes>
          <leafValues>
            -4.7167277336120605e-01 3.0662423372268677e-01</leafValues></_>
        <_>
          <internalNodes>
            0 -1 99 1582744310 -1745544648 1065389242 -1915241826
            -68478372 422776565 1063254527 982888095</internalNodes>
          <leafValues>
            -5.0447434186935425e-01 3.0684933066368103e-01</leafValues></_>
        <_>
          <internalNodes>
            0 -1 21 -425209145 -419872846 -50367251 -746981382 788340408
            1853857750 1979576319 -260309211</internalNodes>
          <leafValues>
            -3.2926917076110840e-01 4.8019313812255859e-01</leafValues></_>
        <_>
          <internalNodes>
            0 -1 89 -2026896242 -120047149 386824447 1587429626
            1057507199 -220101646 -1714247043 -1126687711</internalNodes>
          <leafValues>
            -4.7543644905090332e-01 3.1274846196174622e-01</leafValues></_>
        <_>
          <internalNodes>
            0 -1 5 -361824262 -68275213 -71309447 -545521998 -1216921609
            -9966082 -806421377 -1904934830</internalNodes>
          <leafValues>
            -3.6061260104179382e-01 4.1680654883384705e-01</leafValues></_>
        <_>
          <internalNodes>
            0 -1 86 48731244 794375875 705089725 -1493176053 -1457813506
            -1274347323 -1158497612 -1576682496</internalNodes>
          <leafValues>
            -4.6504172682762146e-01 3.1495368480682373e-01</leafValues></_></weakClassifiers></_>
    <!-- stage 11 -->
    <_>
      <maxWeakCount>8</maxWeakCount>
      <stageThreshold>-1.2648850679397583e+00</stageThreshold>
      <weakClassifiers>
        <_>
          <internalNodes>
            0 -1 50 -542384325 -2121411 16358943 -1097268428 -1943217729
            -525241967 -1162678865 -603989585</internalNodes>
          <leafValues>
            -6.7502021789550781e-01 -3.6319613456726074e-02</leafValues></_>
        <_>
          <internalNodes>
            0 -1 12 1537115128 -1715758625 160108480 -404916897
            467654651 1007015799 -1347718247 2113793787</internalNodes>
          <leafValues>
            -4.6143311262130737e-01 2.4085003137588501e-01</leafValues></_>
        <_>
          <internalNodes>
            0 -1 80 1430633668 -358724958 -264351126 -100948246
            1414879210 1397016761 1934882182 -1310253014</internalNodes>
          <leafValues>
            -5.5333405733108521e-01 2.2291347384452820e-01</leafValues></_>
        <_>
          <internalNodes>
            0 -1 22 317438440 1000068244 -1725616820 -17375122
            1992687613 1436745972 997644255 -1097872140</internalNodes>
          <leafValues>
            -3.8776916265487671e-01 3.4312850236892700e-01</leafValues></_>
        <_>
          <internalNodes>
            0 -1 26 2099521096 647143203 85556050 771152317 -449847582
            -1895635368 1891580215 1582339814</internalNodes>
          <leafValues>
            -6.2081885337829590e-01 1.9964498281478882e-01</leafValues></_>
        <_>
          <internalNodes>
            0 -1 75 1595020188 323733513 414405851 -2033227314
            -1860169095 -1286070868 2135935262 986845410</internalNodes>
          <leafValues>
            -5.6655585765838623e-01 2.3481717705726624e-01</leafValues></_>
        <_>
          <internalNodes>
            0 -1 8 -824028044 686616795 -2011178527 -1481731249
            1979118180 1707892789 1331809205 2070758229</internalNodes>
          <leafValues>
            -5.7792621850967407e-01 2.1335846185684204e-01</leafValues></_>
        <_>
          <internalNodes>
            0 -1 57 -21501503 -1742879203 1344869306 814520315
            -769662912 255330225 -35652978 1332477947</internalNodes>
          <leafValues>
            -4.1346269845962524e-01 3.1620448827743530e-01</leafValues></_></weakClassifiers></_>
    <!-- stage 12 -->
    <_>
      <maxWeakCount>10</maxWeakCount>
      <stageThreshold>-1.2256416082382202e+00</stageThreshold>
      <weakClassifiers>
        <_>
          <internalNodes>
            0 -1 4 -41001 1979589111 -682567715 -1083567113 -6601729
            -4494417 -134450689 -2117953</internalNodes>
          <leafValues>
            -6.3419049978256226e-01 9.4619669020175934e-02</leafValues></_>
        <_>
          <internalNodes>
            0 -1 106 -1076363303 -1241795134 1944009715 -211158273
            -234891521 -1116299617 1572863965 -1141967361</internalNodes>
          <leafValues>
            -3.2294982671737671e-01 3.9177882671356201e-01</leafValues></_>
        <_>
          <internalNodes>
            0 -1 48 81768074 181232639 -857297750 579545038 958237248
            1060694869 2079603872 741199834</internalNodes>
          <leafValues>
            -6.9466876983642578e-01 1.6588394343852997e-01</leafValues></_>
        <_>
          <internalNodes>
            0 -1 62 -397353484 -574382280 868832150 -1799453144
            546557438 -120069750 677367724 -1758526448</internalNodes>
          <leafValues>
            -4.5462048053741455e-01 2.9345229268074036e-01</leafValues></_>
        <_>
          <internalNodes>
            0 -1 103 -93603606 -632482948 -600389378 -779058996
            -1710585302 -1012054092 -137411638 1714408526</internalNodes>
          <leafValues>
            -4.8308682441711426e-01 2.3398932814598083e-01</leafValues></_>
        <_>
          <internalNodes>
            0 -1 79 -681607339 -1090555909 -1114117 -1082495190
            1929215641 -1652621906 -8406032 -16843376</internalNodes>
          <leafValues>
            -3.2614603638648987e-01 4.1058543324470520e-01</leafValues></_>
        <_>
          <internalNodes>
            0 -1 25 714054178 -539675570 -774843438 693066020
            -1924354903 -1599274873 -257843761 549059335</internalNodes>
          <leafValues>
            -4.5273298025131226e-01 3.1094819307327271e-01</leafValues></_>
        <_>
          <internalNodes>
            0 -1 28 784141896 -639722660 -667528128 -937381558
            -225219372 1591684910 -958955954 270597085</internalNodes>
          <leafValues>
            -6.4568001031875610e-01 2.0399549603462219e-01</leafValues></_>
        <_>
          <internalNodes>
            0 -1 67 707543666 -1090614973 1344983558 1115305553
            -837876700 2116946052 673622810 1927143782</internalNodes>
          <leafValues>
            -6.8169289827346802e-01 1.8391454219818115e-01</leafValues></_>
        <_>
          <internalNodes>
            0 -1 69 -7039991 1457329787 235912131 -1291353289 -806571811
            -1443383367 -1957756951 -1182952965</internalNodes>
          <leafValues>
            -3.2310751080513000e-01 4.3352174758911133e-01</leafValues></_></weakClassifiers></_>
    <!-- stage 13 -->
    <_>
      <maxWeakCount>10</maxWeakCount>
      <stageThreshold>-1.2049707174301147e+00</stageThreshold>
      <weakClassifiers>
        <_>
          <internalNodes>
            0 -1 30 -69763077 -236999431 -149054593 -706216193
            2071980958 -117506753 -272630001 -4101</internalNodes>
          <leafValues>
            -6.2297391891479492e-01 1.4718614518642426e-01</leafValues></_>
        <_>
          <internalNodes>
            0 -1 71 -1040250122 -1616958537 1158652834 1398783679
            -544736568 1397962952 -347292673 -203886923</internalNodes>
          <leafValues>
            -4.5166811347007751e-01 2.4382036924362183e-01</leafValues></_>
        <_>
          <internalNodes>
            0 -1 34 -492103841 798194609 -90181156 137944588 2102681403
            1870167039 -139134539 1002373537</internalNodes>
          <leafValues>
            -4.7094884514808655e-01 2.5954335927963257e-01</leafValues></_>
        <_>
          <internalNodes>
            0 -1 122 -1542733840 436054050 782397140 1765781754
            -1635894308 753734868 998120616 1508852956</internalNodes>
          <leafValues>
            -5.7987451553344727e-01 2.1625539660453796e-01</leafValues></_>
        <_>
          <internalNodes>
            0 -1 128 867147738 813682413 -319063208 1567555918
            1907154666 -1407018846 33909464 -815678912</internalNodes>
          <leafValues>
            -4.1533461213111877e-01 3.3865156769752502e-01</leafValues></_>
        <_>
          <internalNodes>
            0 -1 9 577370679 -409762609 1709426573 -97536282 1192215541
            -1275194934 -1958225787 -1960844476</internalNodes>
          <leafValues>
            -4.3837133049964905e-01 3.3250600099563599e-01</leafValues></_>
        <_>
          <internalNodes>
            0 -1 39 -1781473388 -1766846272 -599371787 177037454
            -253098900 -154459864 185207978 1340911597</internalNodes>
          <leafValues>
            -5.1455360651016235e-01 2.6472496986389160e-01</leafValues></_>
        <_>
          <internalNodes>
            0 -1 18 1569661334 1674919160 -1181078753 643176770
            1749821288 -356873381 2057977684 677786162</internalNodes>
          <leafValues>
            -5.8373719453811646e-01 2.3867398500442505e-01</leafValues></_>
        <_>
          <internalNodes>
            0 -1 119 1472128423 -1341775954 -656979147 595485898
            -1380261899 1433472483 -572538571 -1565687922</internalNodes>
          <leafValues>
            -4.3099671602249146e-01 3.3674034476280212e-01</leafValues></_>
        <_>
          <internalNodes>
            0 -1 56 1019284168 -1442898827 2108223368 -113923806
            -788620705 2092084464 -1895645635 1870568355</internalNodes>
          <leafValues>
            -4.6806114912033081e-01 3.1762284040451050e-01</leafValues></_></weakClassifiers></_>
    <!-- stage 14 -->
    <_>
      <maxWeakCount>10</maxWeakCount>
      <stageThreshold>-1.6439846754074097e+00</stageThreshold>
      <weakClassifiers>
        <_>
          <internalNodes>
            0 -1 65 -278929417 -234885121 222825171 -538973221 -4203777
            1870602693 -2004893889 -17673</internalNodes>
          <leafValues>
            -6.3263809680938721e-01 5.1146384328603745e-02</leafValues></_>
        <_>
          <internalNodes>
            0 -1 117 1027127738 800931777 956087892 2144227953
            -1109651481 -930083244 -283280393 2073853688</internalNodes>
          <leafValues>
            -5.7864922285079956e-01 1.3524085283279419e-01</leafValues></_>
        <_>
          <internalNodes>
            0 -1 20 2079658503 -1656141576 -203465793 1857959103
            -162611275 -547374443 -940781027 -56095007</internalNodes>
          <leafValues>
            -3.4273383021354675e-01 3.3935007452964783e-01</leafValues></_>
        <_>
          <internalNodes>
            0 -1 72 2096856564 -338388482 309367792 1072282979
            -411143528 -106680676 -103351333 -312034073</internalNodes>
          <leafValues>
            -3.3763992786407471e-01 3.5018557310104370e-01</leafValues></_>
        <_>
          <internalNodes>
            0 -1 95 -1141863898 20976240 -2074885667 240223186
            1810817206 938037951 898284596 1756493563</internalNodes>
          <leafValues>
            -5.4726904630661011e-01 2.4907283484935760e-01</leafValues></_>
        <_>
          <internalNodes>
            0 -1 0 -807179813 -299841037 -921791729 -1350638838
            830329727 1943618934 -167230715 -294489359</internalNodes>
          <leafValues>
            -3.9076748490333557e-01 3.2405912876129150e-01</leafValues></_>
        <_>
          <internalNodes>
            0 -1 132 -1666515459 1300901995 1033338138 -914546916
            1505428067 -1730099675 -1892029576 755038322</internalNodes>
          <leafValues>
            -4.5313820242881775e-01 2.8499579429626465e-01</leafValues></_>
        <_>
          <internalNodes>
            0 -1 14 -277156927 -552665247 -2141863456 -192110814
            706032324 370193478 -1893241925 -1376326030</internalNodes>
          <leafValues>
            -3.6513745784759521e-01 3.7063181400299072e-01</leafValues></_>
        <_>
          <internalNodes>
            0 -1 138 721969664 2003134792 1328153772 -229963455
            -2057770052 -591625995 191095088 1248067696</internalNodes>
          <leafValues>
            -7.1607315540313721e-01 1.8268495798110962e-01</leafValues></_>
        <_>
          <internalNodes>
            0 -1 123 -1732460741 1383874778 -544193190 -1095751243
            -57397591 -1195505136 873761423 -1233827131</internalNodes>
          <leafValues>
            -4.0099766850471497e-01 3.1766355037689209e-01</leafValues></_></weakClassifiers></_>
    <!-- stage 15 -->
    <_>
      <maxWeakCount>10</maxWeakCount>
      <stageThreshold>-1.5766407251358032e+00</stageThreshold>
      <weakClassifiers>
        <_>
          <internalNodes>
            0 -1 124 -2177 -1156188674 1492992861 -2107153 -16781377
            -1344886085 1926230969 -353379329</internalNodes>
          <leafValues>
            -6.3955223560333252e-01 2.2580645978450775e-02</leafValues></_>
        <_>
          <internalNodes>
            0 -1 59 -82042098 -1151222776 -218013835 -405917048
            1363975966 -849102241 -39306403 1910366446</internalNodes>
          <leafValues>
            -5.0997388362884521e-01 1.7184695601463318e-01</leafValues></_>
        <_>
          <internalNodes>
            0 -1 7 105797418 -1612002830 -1668950294 1612696322
            172337001 -1888768669 625963248 577119604</internalNodes>
          <leafValues>
            -6.4465016126632690e-01 1.5590928494930267e-01</leafValues></_>
        <_>
          <internalNodes>
            0 -1 45 1006472204 840430275 -661622632 -202899672 471744832
            -611657017 98754528 703856204</internalNodes>
          <leafValues>
            -5.7854652404785156e-01 2.0895422995090485e-01</leafValues></_>
        <_>
          <internalNodes>
            0 -1 88 -1198170083 -274921082 425985276 2137731852
            -1735876301 -1330076976 -1257990931 -1459617803</internalNodes>
          <leafValues>
            -3.5843870043754578e-01 3.2740744948387146e-01</leafValues></_>
        <_>
          <internalNodes>
            0 -1 77 -688273696 -1982456890 -1130998787 -1476521182
            -1567902398 -387406976 60353532 665286510</internalNodes>
          <leafValues>
            -4.5944225788116455e-01 2.6227855682373047e-01</leafValues></_>
        <_>
          <internalNodes>
            0 -1 131 -687909666 267303715 1870838344 -548460214
            1492707752 -1073976408 -568894 -79707393</internalNodes>
          <leafValues>
            -3.1212320923805237e-01 4.1669011116027832e-01</leafValues></_>
        <_>
          <internalNodes>
            0 -1 47 260029389 -764416260 -1649418747 -1796243986
            1979121539 -261357699 536731205 -1161346</internalNodes>
          <leafValues>
            -3.3649289608001709e-01 3.7987223267555237e-01</leafValues></_>
        <_>
          <internalNodes>
            0 -1 35 1406477828 -1199973131 -62169035 -176299749
            -1084051960 674474814 -1829263476 -120727736</internalNodes>
          <leafValues>
            -4.0134230256080627e-01 3.2368350028991699e-01</leafValues></_>
        <_>
          <internalNodes>
            0 -1 82 -1154404707 1979494629 -1352371447 -1078940795
            1457581794 -344307746 -80036828 -1631606854</internalNodes>
          <leafValues>
            -3.2768040895462036e-01 4.0934079885482788e-01</leafValues></_></weakClassifiers></_>
    <!-- stage 16 -->
    <_>
      <maxWeakCount>11</maxWeakCount>
      <stageThreshold>-1.4256170988082886e+00</stageThreshold>
      <weakClassifiers>
        <_>
          <internalNodes>
            0 -1 10 -22029617 -1108443906 2006757842 -270794945
            -57987365 688917285 -340830289 -536878217</internalNodes>
          <leafValues>
            -6.6789668798446655e-01 -8.2462251186370850e-02</leafValues></_>
        <_>
          <internalNodes>
            0 -1 53 -59531343 -1012182215 273272808 -872834627 233619413
            418593175 472682503 -2030266113</internalNodes>
          <leafValues>
            -4.1613918542861938e-01 2.3534348607063293e-01</leafValues></_>
        <_>
          <internalNodes>
            0 -1 68 -100179400 1116634872 177027160 42558204 -673994556
            1372541261 2129359112 -691085615</internalNodes>
          <leafValues>
            -5.2305871248245239e-01 2.0344002544879913e-01</leafValues></_>
        <_>
          <internalNodes>
            0 -1 49 540443888 610443542 335695830 38330392 1218068928
            -1723890667 -20733811 894553568</internalNodes>
          <leafValues>
            -7.0410269498825073e-01 1.9374974071979523e-01</leafValues></_>
        <_>
          <internalNodes>
            0 -1 92 -823910476 -1273351293 -839397935 -27377194 49091314
            -1137220648 459798906 1591873659</internalNodes>
          <leafValues>
            -4.5522877573966980e-01 2.3341284692287445e-01</leafValues></_>
        <_>
          <internalNodes>
            0 -1 63 700426118 1783403046 1482258357 -1571073953
            2025798495 -1511347700 -443888445 15571792</internalNodes>
          <leafValues>
            -5.0613826513290405e-01 2.4439197778701782e-01</leafValues></_>
        <_>
          <internalNodes>
            0 -1 37 -1878828165 -675061833 1879996270 -10617299
            1448533966 -1802179862 1137966871 -1077956716</internalNodes>
          <leafValues>
            -3.2915562391281128e-01 3.7438702583312988e-01</leafValues></_>
        <_>
          <internalNodes>
            0 -1 120 -35924988 -23081772 1834173336 -552093409
            -1742573872 1047188048 688107110 -1539323493</internalNodes>
          <leafValues>
            -3.7789639830589294e-01 3.3468726277351379e-01</leafValues></_>
        <_>
          <internalNodes>
            0 -1 110 -1196035679 -504138009 -553791947 1307901884
            -1078593366 -1683439641 2138564494 -587353611</internalNodes>
          <leafValues>
            -3.2112580537796021e-01 4.0825012326240540e-01</leafValues></_>
        <_>
          <internalNodes>
            0 -1 16 2146904575 -211943731 -18195613 455977671
            -1215319143 -1812988129 -1281445991 -1949848721</internalNodes>
          <leafValues>
            -2.5213539600372314e-01 5.1918762922286987e-01</leafValues></_>
        <_>
          <internalNodes>
            0 -1 121 659222976 -1491279935 -1508849885 -804364313
            188771216 -57867000 -775114127 369119968</internalNodes>
          <leafValues>
            -6.3808208703994751e-01 2.0489118993282318e-01</leafValues></_></weakClassifiers></_>
    <!-- stage 17 -->
    <_>
      <maxWeakCount>10</maxWeakCount>
      <stageThreshold>-1.2785311937332153e+00</stageThreshold>
      <weakClassifiers>
        <_>
          <internalNodes>
            0 -1 102 -288361115 -151043661 -609484809 -201657421
            -307864585 -1679313469 -307250178 -151313866</internalNodes>
          <leafValues>
            -6.6845804452896118e-01 -9.4211123883724213e-02</leafValues></_>
        <_>
          <internalNodes>
            0 -1 27 -1168803466 1213042527 1887370002 -691076115
            -1130712871 -892024241 -1159797776 -688426085</internalNodes>
          <leafValues>
            -4.1906431317329407e-01 2.3939594626426697e-01</leafValues></_>
        <_>
          <internalNodes>
            0 -1 83 917433040 902623679 -1107901544 1343774670 809112682
            419389086 866368985 1003443047</internalNodes>
          <leafValues>
            -5.8067411184310913e-01 1.9194038212299347e-01</leafValues></_>
        <_>
          <internalNodes>
            0 -1 139 -562060269 609299262 -268474628 250877302
            1034394652 -205529417 -1885024372 -1061433510</internalNodes>
          <leafValues>
            -3.2232490181922913e-01 3.6851951479911804e-01</leafValues></_>
        <_>
          <internalNodes>
            0 -1 126 1476919432 254727367 -399030279 1043945083
            -1808863294 -1294307075 -198512617 -435492208</internalNodes>
          <leafValues>
            -4.7252747416496277e-01 2.4183395504951477e-01</leafValues></_>
        <_>
          <internalNodes>
            0 -1 101 -1371874790 -262133035 1601961973 -1611547971
            -1208745985 -142606667 259271965 -1695664417</internalNodes>
          <leafValues>
            -3.3819815516471863e-01 3.6162510514259338e-01</leafValues></_>
        <_>
          <internalNodes>
            0 -1 41 -2035081728 -1629120234 -71017072 1343320832
            730827392 49927723 -2011108267 897357393</internalNodes>
          <leafValues>
            -5.7023251056671143e-01 2.1346950531005859e-01</leafValues></_>
        <_>
          <internalNodes>
            0 -1 55 -1479047539 -1082941333 -488648341 884912651
            -1611919866 -1666839591 1291704971 -419849627</internalNodes>
          <leafValues>
            -3.5106083750724792e-01 3.5129222273826599e-01</leafValues></_>
        <_>
          <internalNodes>
            0 -1 78 -111689964 -1570229970 479550301 -1260257930
            1385547520 -1359804230 1161664401 706650711</internalNodes>
          <leafValues>
            -4.9737414717674255e-01 2.5349396467208862e-01</leafValues></_>
        <_>
          <internalNodes>
            0 -1 17 813745258 1311338327 -492708409 1109588567 565329954
            -756133620 -1519819016 1888632753</internalNodes>
          <leafValues>
            -5.9484958648681641e-01 2.1106237173080444e-01</leafValues></_></weakClassifiers></_>
    <!-- stage 18 -->
    <_>
      <maxWeakCount>10</maxWeakCount>
      <stageThreshold>-1.1549621820449829e+00</stageThreshold>
      <weakClassifiers>
        <_>
          <internalNodes>
            0 -1 80 -1 -68173841 -608867745 -4200453 -538972673 -3167053
            -74448905 -21809</internalNodes>
          <leafValues>
            -5.9745049476623535e-01 2.5391849875450134e-01</leafValues></_>
        <_>
          <internalNodes>
            0 -1 38 -1556080240 -2014975529 2071401536 696743424
            -2097900104 110793777 1623389535 -1095357482</internalNodes>
          <leafValues>
            -5.1557248830795288e-01 1.4820159971714020e-01</leafValues></_>
        <_>
          <internalNodes>
            0 -1 11 -85486674 -1676725053 2017490960 497307095
            -521719644 1426262423 -640162019 1458553704</internalNodes>
          <leafValues>
            -4.0093970298767090e-01 2.5877925753593445e-01</leafValues></_>
        <_>
          <internalNodes>
            0 -1 136 958177974 1414479386 -1820313395 1464287300
            -1358644514 908172683 -1849318722 1297586556</internalNodes>
          <leafValues>
            -4.7497165203094482e-01 2.2967214882373810e-01</leafValues></_>
        <_>
          <internalNodes>
            0 -1 24 1300163794 -1056567 -1165919833 -235020016
            2140050612 468985661 1961309335 525814999</internalNodes>
          <leafValues>
            -3.5803467035293579e-01 3.2490235567092896e-01</leafValues></_>
        <_>
          <internalNodes>
            0 -1 127 -339220717 -1710608890 -688821193 1738789023
            -122964104 2042761142 829605901 -521667134</internalNodes>
          <leafValues>
            -3.5658356547355652e-01 3.2975158095359802e-01</leafValues></_>
        <_>
          <internalNodes>
            0 -1 23 1290745528 -2022591606 -1473761024 -964628938
            -596151453 1527347276 -287179050 182441364</internalNodes>
          <leafValues>
            -5.1923459768295288e-01 2.1955837309360504e-01</leafValues></_>
        <_>
          <internalNodes>
            0 -1 33 274225086 -1404614367 -592054008 605471532
            -1801037614 -219982020 865573919 -373208551</internalNodes>
          <leafValues>
            -4.5424798130989075e-01 2.6186487078666687e-01</leafValues></_>
        <_>
          <internalNodes>
            0 -1 130 1991124951 -1771403779 1570442590 -1629224470
            -108239537 1878399553 1219253188 -1056061814</internalNodes>
          <leafValues>
            -3.7292578816413879e-01 3.1877839565277100e-01</leafValues></_>
        <_>
          <internalNodes>
            0 -1 100 -1634334688 1764500104 -2045412047 1610214688
            -1196510928 -1957033564 -1346819801 -403538883</internalNodes>
          <leafValues>
            -5.0777930021286011e-01 2.3339620232582092e-01</leafValues></_></weakClassifiers></_>
    <!-- stage 19 -->
    <_>
      <maxWeakCount>9</maxWeakCount>
      <stageThreshold>-1.5592936277389526e+00</stageThreshold>
      <weakClassifiers>
        <_>
          <internalNodes>
            0 -1 50 -266401 -304111819 -2097801129 -153417932 3996567
            1626455857 -71574673 -637805329</internalNodes>
          <leafValues>
            -6.6233766078948975e-01 -8.1339709460735321e-02</leafValues></_>
        <_>
          <internalNodes>
            0 -1 104 622173104 86375638 685710089 -589503052 791153705
            964863874 1599749522 1761446616</internalNodes>
          <leafValues>
            -6.3002669811248779e-01 9.3699738383293152e-02</leafValues></_>
        <_>
          <internalNodes>
            0 -1 19 758995233 264943118 -1418011274 1240920814
            1305434421 491628985 1575471216 1654146912</internalNodes>
          <leafValues>
            -5.6446951627731323e-01 1.7255212366580963e-01</leafValues></_>
        <_>
          <internalNodes>
            0 -1 64 1126165194 1966690738 -721413494 75626220
            -1277690844 372465665 -78000210 2002251266</internalNodes>
          <leafValues>
            -5.9768849611282349e-01 1.9145923852920532e-01</leafValues></_>
        <_>
          <internalNodes>
            0 -1 44 -271693914 232685050 604147562 730683362 1174419429
            2069250151 1145350727 -857342118</internalNodes>
          <leafValues>
            -4.0222692489624023e-01 2.8971612453460693e-01</leafValues></_>
        <_>
          <internalNodes>
            0 -1 13 -534620869 -530466162 1138410335 1454366700
            1537424307 -40431477 1770530749 -871951770</internalNodes>
          <leafValues>
            -3.3987081050872803e-01 3.4584397077560425e-01</leafValues></_>
        <_>
          <internalNodes>
            0 -1 15 430431000 -606593608 -331575499 -884663105
            -1768428880 -2052703416 675404461 1495398639</internalNodes>
          <leafValues>
            -3.9441207051277161e-01 2.9853123426437378e-01</leafValues></_>
        <_>
          <internalNodes>
            0 -1 58 777784188 -926478962 466619385 980440614 -1244355836
            2094007704 1671725822 653389182</internalNodes>
          <leafValues>
            -5.5799144506454468e-01 2.0874939858913422e-01</leafValues></_>
        <_>
          <internalNodes>
            0 -1 105 -294299587 -73845864 -1384094330 -45743650
            270553232 -141877150 1249076060 1541188253</internalNodes>
          <leafValues>
            -4.2690667510032654e-01 2.8306353092193604e-01</leafValues></_></weakClassifiers></_></stages>
  <features>
    <_>
      <rect>
        0 1 4 1</rect></_>
    <_>
      <rect>
        1 0 4 1</rect></_>
    <_>
      <rect>
        1 0 4 2</rect></_>
    <_>
      <rect>
        1 1 4 1</rect></_>
    <_>
      <rect>
        1 5 4 1</rect></_>
    <_>
      <rect>
        2 0 4 2</rect></_>
    <_>
      <rect>
        2 1 5 2</rect></_>
    <_>
      <rect>
        3 1 5 2</rect></_>
    <_>
      <rect>
        3 2 4 1</rect></_>
    <_>
      <rect>
        4 0 4 2</rect></_>
    <_>
      <rect>
        4 1 2 2</rect></_>
    <_>
      <rect>
        4 2 2 2</rect></_>
    <_>
      <rect>
        4 2 6 2</rect></_>
    <_>
      <rect>
        5 0 1 2</rect></_>
    <_>
      <rect>
        5 1 2 2</rect></_>
    <_>
      <rect>
        5 2 4 2</rect></_>
    <_>
      <rect>
        5 3 4 1</rect></_>
    <_>
      <rect>
        5 4 3 1</rect></_>
    <_>
      <rect>
        5 5 3 1</rect></_>
    <_>
      <rect>
        6 0 1 1</rect></_>
    <_>
      <rect>
        6 0 3 1</rect></_>
    <_>
      <rect>
        6 1 1 2</rect></_>
    <_>
      <rect>
        6 1 2 1</rect></_>
    <_>
      <rect>
        6 1 2 2</rect></_>
    <_>
      <rect>
        6 2 1 1</rect></_>
    <_>
      <rect>
        6 2 1 2</rect></_>
    <_>
      <rect>
        6 2 2 2</rect></_>
    <_>
      <rect>
        6 3 3 1</rect></_>
    <_>
      <rect>
        6 4 2 1</rect></_>
    <_>
      <rect>
        7 0 3 2</rect></_>
    <_>
      <rect>
        7 1 1 1</rect></_>
    <_>
      <rect>
        7 1 1 2</rect></_>
    <_>
      <rect>
        7 1 2 1</rect></_>
    <_>
      <rect>
        7 1 3 2</rect></_>
    <_>
      <rect>
        7 1 4 1</rect></_>
    <_>
      <rect>
        7 2 1 1</rect></_>
    <_>
      <rect>
        7 2 1 2</rect></_>
    <_>
      <rect>
        7 2 2 1</rect></_>
    <_>
      <rect>
        7 2 2 2</rect></_>
    <_>
      <rect>
        7 2 3 1</rect></_>
    <_>
      <rect>
        7 2 3 2</rect></_>
    <_>
      <rect>
        7 3 3 1</rect></_>
    <_>
      <rect>
        7 4 1 1</rect></_>
    <_>
      <rect>
        7 4 2 1</rect></_>
    <_>
      <rect>
        7 5 1 1</rect></_>
    <_>
      <rect>
        8 0 1 2</rect></_>
    <_>
      <rect>
        8 0 3 2</rect></_>
    <_>
      <rect>
        8 1 1 1</rect></_>
    <_>
      <rect>
        8 1 1 2</rect></_>
    <_>
      <rect>
        8 1 2 1</rect></_>
    <_>
      <rect>
        8 1 2 2</rect></_>
    <_>
      <rect>
        8 2 1 1</rect></_>
    <_>
      <rect>
        8 2 1 2</rect></_>
    <_>
      <rect>
        8 2 2 2</rect></_>
    <_>
      <rect>
        8 3 1 1</rect></_>
    <_>
      <rect>
        8 3 2 1</rect></_>
    <_>
      <rect>
        8 3 3 1</rect></_>
    <_>
      <rect>
        8 4 1 1</rect></_>
    <_>
      <rect>
        8 5 1 1</rect></_>
    <_>
      <rect>
        9 0 1 2</rect></_>
    <_>
      <rect>
        9 1 1 1</rect></_>
    <_>
      <rect>
        9 1 1 2</rect></_>
    <_>
      <rect>
        9 1 2 2</rect></_>
    <_>
      <rect>
        9 1 4 2</rect></_>
    <_>
      <rect>
        9 2 1 1</rect></_>
    <_>
      <rect>
        9 2 1 2</rect></_>
    <_>
      <rect>
        9 2 2 1</rect></_>
    <_>
      <rect>
        9 2 3 1</rect></_>
    <_>
      <rect>
        9 3 1 1</rect></_>
    <_>
      <rect>
        9 3 2 1</rect></_>
    <_>
      <rect>
        9 3 3 1</rect></_>
    <_>
      <rect>
        9 4 1 1</rect></_>
    <_>
      <rect>
        9 5 1 1</rect></_>
    <_>
      <rect>
        9 5 2 1</rect></_>
    <_>
      <rect>
        10 0 1 2</rect></_>
    <_>
      <rect>
        10 0 2 2</rect></_>
    <_>
      <rect>
        10 0 5 2</rect></_>
    <_>
      <rect>
        10 1 1 1</rect></_>
    <_>
      <rect>
        10 1 1 2</rect></_>
    <_>
      <rect>
        10 1 2 1</rect></_>
    <_>
      <rect>
        10 2 1 1</rect></_>
    <_>
      <rect>
        10 2 1 2</rect></_>
    <_>
      <rect>
        10 2 2 1</rect></_>
    <_>
      <rect>
        10 2 3 1</rect></_>
    <_>
      <rect>
        10 2 5 2</rect></_>
    <_>
      <rect>
        10 3 1 1</rect></_>
    <_>
      <rect>
        10 3 2 1</rect></_>
    <_>
      <rect>
        10 4 1 1</rect></_>
    <_>
      <rect>
        10 5 1 1</rect></_>
    <_>
      <rect>
        10 5 2 1</rect></_>
    <_>
      <rect>
        11 0 1 2</rect></_>
    <_>
      <rect>
        11 1 1 1</rect></_>
    <_>
      <rect>
        11 1 2 1</rect></_>
    <_>
      <rect>
        11 1 3 1</rect></_>
    <_>
      <rect>
        11 2 1 1</rect></_>
    <_>
      <rect>
        11 2 1 2</rect></_>
    <_>
      <rect>
        11 2 2 1</rect></_>
    <_>
      <rect>
        11 3 1 1</rect></_>
    <_>
      <rect>
        11 3 2 1</rect></_>
    <_>
      <rect>
        11 4 1 1</rect></_>
    <_>
      <rect>
        11 5 1 1</rect></_>
    <_>
      <rect>
        11 5 2 1</rect></_>
    <_>
      <rect>
        12 1 1 2</rect></_>
    <_>
      <rect>
        12 2 1 1</rect></_>
    <_>
      <rect>
        12 2 1 2</rect></_>
    <_>
      <rect>
        12 2 2 1</rect></_>
    <_>
      <rect>
        12 2 3 2</rect></_>
    <_>
      <rect>
        12 3 1 1</rect></_>
    <_>
      <rect>
        12 3 2 1</rect></_>
    <_>
      <rect>
        12 4 1 1</rect></_>
    <_>
      <rect>
        12 5 3 1</rect></_>
    <_>
      <rect>
        13 0 3 2</rect></_>
    <_>
      <rect>
        13 0 4 2</rect></_>
    <_>
      <rect>
        13 1 1 1</rect></_>
    <_>
      <rect>
        13 1 3 2</rect></_>
    <_>
      <rect>
        13 1 4 2</rect></_>
    <_>
      <rect>
        13 2 1 1</rect></_>
    <_>
      <rect>
        13 2 1 2</rect></_>
    <_>
      <rect>
        13 2 2 1</rect></_>
    <_>
      <rect>
        13 2 4 2</rect></_>
    <_>
      <rect>
        13 3 1 1</rect></_>
    <_>
      <rect>
        13 3 2 1</rect></_>
    <_>
      <rect>
        13 4 1 1</rect></_>
    <_>
      <rect>
        13 5 2 1</rect></_>
    <_>
      <rect>
        14 1 2 2</rect></_>
    <_>
      <rect>
        14 2 1 1</rect></_>
    <_>
      <rect>
        14 2 2 1</rect></_>
    <_>
      <rect>
        14 2 3 2</rect></_>
    <_>
      <rect>
        14 3 1 1</rect></_>
    <_>
      <rect>
        14 4 1 1</rect></_>
    <_>
      <rect>
        15 0 1 2</rect></_>
    <_>
      <rect>
        15 1 1 1</rect></_>
    <_>
      <rect>
        15 1 2 1</rect></_>
    <_>
      <rect>
        15 1 2 2</rect></_>
    <_>
      <rect>
        15 2 1 1</rect></_>
    <_>
      <rect>
        15 3 1 1</rect></_>
    <_>
      <rect>
        15 4 1 1</rect></_>
    <_>
      <rect>
        16 2 1 1</rect></_>
    <_>
      <rect>
        16 3 1 1</rect></_>
    <_>
      <rect>
        17 1 1 2</rect></_></features></cascade>
</opencv_storage>
